{"weights": [0.06945072546380412, 0.040543697918951904, 0.2091127238251434, 0.039213224002439234, 0.060048219467755216, 0.07289271760683264, -0.04114167646319534, 0.27686878387490876, 0.06945072546380412, 0.17292810271104433, 0.0967367959386584, 0.025162990445287716, 0.1405270622180995, 0.042908540640224146, 0.3133083450245264, -0.07028743810657644, 0.6370418142943324, -0.7437961266330371, -0.07195066598700242, -0.05705239161392393, -0.1794660884919245, 0.07410499426031461, -0.022275441462147084, 0.07862181583640723, -0.0810280970068316, -0.043655294376611725, -0.28660547759947574, -0.04060290248635953, 0.03879828203937561, 0.20820937526859984, 0.06069720848080905, 0.05159858935642221, 0.0929736094163939, -0.07684411615925998, 0.009832139287640887, -0.05150541782364752, 0.07586084718646516, 0.07325118896274894, -0.21144659270306534, 0.11581311978550121, 0.007342968060259527, 0.060048219467755216, -0.12931321508416474, 0.028550746592512735, -0.04392666672873682, -0.004665302402594656, 0.060696996245723035, -0.051144769056132536, 0.27686878387490876, 0.4602737345434789, -0.04114167646319534, -0.010533895874275447], "bias": -0.9638977047667999, "feature_mu": [-0.019698366522789, -2.9753708839416504, -0.1881410777568817, 1.9547550678253174, 0.9185010194778442, -3.329469919204712, 5.115098476409912, 0.8412654995918274, -0.019698366522789, 0.09955375641584396, -0.20535285770893097, -0.2833400368690491, -0.23654770851135254, 0.25403714179992676, 0.01769496686756611, 3.017089605331421, 0.4171624183654785, 0.609896183013916, 0.6373116970062256, 0.43808090686798096, 0.7325263023376465, 0.3985355496406555, 0.3556864857673645, 0.29402628540992737, 0.42989569902420044, 0.44091615080833435, 4.330070972442627, 1.1096537113189697, 0.9842441082000732, 0.7808032631874084, 1.2421555519104004, 1.0269174575805664, 1.0336006879806519, -0.18430422246456146, 1.4111467599868774, -2.8786423206329346, -0.2863873839378357, -0.08560556918382645, 2.6096479892730713, 0.19081497192382812, -0.10066065937280655, 0.9185010194778442, -0.015302502550184727, 0.00011819664359791204, 0.0011795904720202088, 0.023947885259985924, 0.24215538799762726, 0.31744691729545593, 0.8412654995918274, 0.08110932260751724, 5.115098476409912, 4.303763389587402], "feature_std": [1.672760248184204, 15.70450496673584, 1.0376360416412354, 4.295283317565918, 0.9115111231803894, 34.457576751708984, 2.821199655532837, 1.6793721914291382, 1.672760248184204, 0.2994040846824646, 1.375736951828003, 1.3379367589950562, 1.3336764574050903, 0.43531858921051025, 0.5189688801765442, 22.229076385498047, 0.33075565099716187, 0.4877732992172241, 0.4807758629322052, 0.4961511492729187, 0.44264155626296997, 0.48959672451019287, 0.4787207841873169, 0.45560383796691895, 0.4950610101222992, 0.4964967668056488, 1.9318856000900269, 0.8144192099571228, 0.8823310732841492, 0.27043217420578003, 0.9512025713920593, 0.4201161563396454, 0.3351195454597473, 0.7630592584609985, 2.885956287384033, 2.208364486694336, 1.3602980375289917, 0.5945339798927307, 3.4863946437835693, 0.24993333220481873, 3.3674910068511963, 0.9115111231803894, 0.8149598240852356, 2.254000425338745, 0.13260404765605927, 1.0483789443969727, 0.9512026309967041, 1.3168014287948608, 1.6793721914291382, 1.871508240699768, 2.821199655532837, 3.247699737548828], "feature_cols": ["z_x1", "z_x2", "z_x3", "z_x4", "z_x5", "z_score", "o_x1", "o_x2", "o_x3", "o_x4", "o_x5", "o_x6", "o_x7", "o_x8", "o_x9", "o_score_raw", "o_prob", "f1", "f2", "f3", "f4", "f5", "f6", "f7", "f8", "f9", "f_score", "dsri", "gmi", "aqi", "sgi", "depi", "sgai", "tata", "lvgi", "m_score", "roa", "cfo_ta", "cr", "lev", "gm", "asset_turn", "delta_roa", "delta_cr", "delta_lev", "delta_gm", "delta_sale", "delta_at", "debt_ratio", "equity_ratio", "log_at", "log_sale"], "target": "distress_3yr", "pos_weight": 71.3012466430664, "auc_roc": 0.837956, "best_f1": 0.020688, "model_type": "logistic_regression_numpy", "training_data": "WRDS/Compustat 1989-2024"}